# Weights file
-0.9587437714961108, -0.8798008627766566, -2.7394979183019736, 4.75712124907977, 5.023281815395202, 0.022077546425327665, -2.2938559185527705, -4.1630364555858606, -1.195421536176428, -1.344816634845728
-0.04084467552539282, 0.7921690755080085, 2.230333992984334, -1.891834150468253, -1.4030325797649936, 0.7858540134100938, -1.2937800263303592, -3.331663761752289, 2.8182480758686017, 0.37052549310510774, -1.5533896705026333, -3.657058152600116, 3.846770764805699, -1.8458711241250358, -1.1462943913566348
-1.9311546498592136, 2.449376787733614, 3.1363917886305233, -1.1233996740014913, -0.053571204384919094, -0.046368912087245924, 0.12579742587835185, -1.8477987237215079, -1.7767988975068574, -2.1292307302193727, 2.3737928916632196, 3.287881167202043, -1.2074906245975612, -0.21838172568726996, 0.18672010188360552
-0.5968524823131898, -0.38062733595202214, -0.8057434183339351, -2.08691865720635, -1.4858322768821173, -2.699459505300135, 0.2682906997872841, 2.2285708463182448, -3.0205297193033713, 0.39079438044949844, -2.120177392979336, 0.1236546947967489, 1.9265196602785177, -2.318935670333523, -0.14118497183758896, -2.190188248846575, 0.19768775759713025, 0.23242523745280483, -1.8315560157615307, 0.04128924161884684, -2.048224525934968, -0.12629080723078406, 0.6378801580515295, -1.8574097474328906, -0.041460721745250013
-1.0002204577787623, -4.395128133681366, -3.4285809824554536, -2.470352498486782, -2.5993681047736095