# Weights file
0.07567896711948845, -0.925863972114358, -0.7261499949701693, 0.5504563334332737, 0.06634865595390958, -0.9332167618624198, -0.2384728511792907, 0.9967881176687422
-0.3267442223791196, -0.3464334070950023, 0.5855183576596598, 0.9951392574341408, 0.41708400983802796, -0.48870661571567287, -0.040424947212583426, 0.22273077233652042
-0.7104367984956116, 0.14704460826457894, -0.7463290285495089, 0.24502020100195607, -0.956460653736082, -0.808303464728128, 0.6715969611045367, -0.5144184880859277
0.24471432073627783, -0.6198354036654319, -0.31226394186060785, -0.9910853953219934, -1.2632001348034616, 0.18129076441909633, -0.2302287003146348, -1.3492121122132434, -0.0996495950190988, -1.3390218375895873, -0.5328892669238883, -0.040103623903238135, 0.20345020399338068, 0.24666622944579988, 0.6520201077141881, -0.1405221000948997
-0.917472623080141, -0.1422674387061618, -0.3366212961974957, -1.2748571931093258, -0.5268244078491668, 0.018773614995385362, -0.33939566439262286, -1.3668520682663332, -0.5622690630595727, -1.05095443445791, -1.5184370329627903, -0.6952801720377786
-0.6977705668327012, -0.7260509890891194, -0.8898767604480005, -2.400431652817497, -2.5304799065516552, -1.6966869177723418
-2.688411260214178, -0.7856534151963516
2.5486246069226115