# Weights file
2.578734264781152, -2.3278478989078843, 4.8188228380776215, 1.4511366115063962, -2.4086750157724603, -3.9213546222615614, -0.22092970556104885, -1.336482072069062
-5.093503313231844, 0.48371473498040546, -2.110741920621772, 0.08669470099711947, 1.950807629445288, -0.5783913143566146, 1.2049062725629966, 0.03132177545211629, 3.50286092168305, -2.755909761910766, 1.9134171452787845, -0.8705661084890883, -2.789393520670035, 2.2870598891395404, -1.5493138384730176, -0.28734716400911087, -0.20672085240956853, 0.27956114332982546, -0.2177995534045303, 0.5110355855885426
-1.7875914184324357, -0.7301160323169383, 0.25683677090325335, -1.376151105929083, 0.06484155792609417, -4.2392277873219575, 2.4446117893367623, 2.6636804753477663, -0.1014158070288722, 1.361131595840693, 0.0893505950627443, -0.9443223743602343, -1.0347518888599556, 0.3410215736016731, 0.03230965508191403, -3.0267960095419673, 0.5792549086818176, 3.153594807045522, -3.964965726214754, -1.6301339223661322
-0.1941404698446648, -2.4545233414717536, 1.198194697864526, -2.388950242763946, -0.5312520397748964, -1.572624144580532, 0.976729635731584, -2.7124148707573106, -0.2519926194043055, -3.013582079873942, 0.8880757251624273, -1.8232819928377342, -0.5832625520165627, -2.071551548285922, 0.5055636464766988, -2.363807715851625
-4.268326212391383, -4.272876029270353, -3.960401946888361, -3.961704225972237
8.300617808588648